<?xml version="1.0"?>
<opencv_storage>
<cascade>
  <stageType>BOOST</stageType>
  <featureType>HAAR</featureType>
  <height>46</height>
  <width>38</width>
  <stageParams>
    <boostType>GAB</boostType>
    <minHitRate>9.9500000476837158e-01</minHitRate>
    <maxFalseAlarm>5.0000000000000000e-01</maxFalseAlarm>
    <weightTrimRate>9.4999998807907104e-01</weightTrimRate>
    <maxDepth>1</maxDepth>
    <maxWeakCount>100</maxWeakCount></stageParams>
  <featureParams>
    <maxCatCount>0</maxCatCount>
    <featSize>1</featSize>
    <mode>BASIC</mode></featureParams>
  <stageNum>6</stageNum>
  <stages>
    <!-- stage 0 -->
    <_>
      <maxWeakCount>8</maxWeakCount>
      <stageThreshold>-1.4077589511871338e+00</stageThreshold>
      <weakClassifiers>
        <_>
          <internalNodes>
            0 -1 33 5.1488019526004791e-02</internalNodes>
          <leafValues>
            -6.9719624519348145e-01 3.2103320956230164e-01</leafValues></_>
        <_>
          <internalNodes>
            0 -1 17 4.2392820119857788e-02</internalNodes>
          <leafValues>
            -5.3784108161926270e-01 4.2112690210342407e-01</leafValues></_>
        <_>
          <internalNodes>
            0 -1 21 3.5268552601337433e-03</internalNodes>
          <leafValues>
            -3.5994371771812439e-01 4.5419389009475708e-01</leafValues></_>
        <_>
          <internalNodes>
            0 -1 2 1.8187232315540314e-02</internalNodes>
          <leafValues>
            4.0476813912391663e-01 -4.6944731473922729e-01</leafValues></_>
        <_>
          <internalNodes>
            0 -1 5 5.4172496311366558e-04</internalNodes>
          <leafValues>
            2.7097779512405396e-01 -6.0049688816070557e-01</leafValues></_>
        <_>
          <internalNodes>
            0 -1 13 2.8167162090539932e-03</internalNodes>
          <leafValues>
            -4.4337683916091919e-01 3.0612665414810181e-01</leafValues></_>
        <_>
          <internalNodes>
            0 -1 15 2.7507874183356762e-03</internalNodes>
          <leafValues>
            -3.3648267388343811e-01 4.0928876399993896e-01</leafValues></_>
        <_>
          <internalNodes>
            0 -1 24 -1.3585316482931376e-03</internalNodes>
          <leafValues>
            4.1604760289192200e-01 -3.1898880004882813e-01</leafValues></_></weakClassifiers></_>
    <!-- stage 1 -->
    <_>
      <maxWeakCount>9</maxWeakCount>
      <stageThreshold>-1.2736214399337769e+00</stageThreshold>
      <weakClassifiers>
        <_>
          <internalNodes>
            0 -1 25 -3.4393139183521271e-02</internalNodes>
          <leafValues>
            9.0909093618392944e-01 -5.8978450298309326e-01</leafValues></_>
        <_>
          <internalNodes>
            0 -1 18 3.8199327886104584e-02</internalNodes>
          <leafValues>
            -5.8835840225219727e-01 3.5533845424652100e-01</leafValues></_>
        <_>
          <internalNodes>
            0 -1 35 8.0967321991920471e-04</internalNodes>
          <leafValues>
            -4.0405935049057007e-01 3.9715871214866638e-01</leafValues></_>
        <_>
          <internalNodes>
            0 -1 14 -8.6502416525036097e-04</internalNodes>
          <leafValues>
            -8.0306833982467651e-01 2.0569744706153870e-01</leafValues></_>
        <_>
          <internalNodes>
            0 -1 38 -4.6966702211648226e-04</internalNodes>
          <leafValues>
            4.5111602544784546e-01 -3.9863383769989014e-01</leafValues></_>
        <_>
          <internalNodes>
            0 -1 39 -1.3657570525538176e-04</internalNodes>
          <leafValues>
            -4.4004687666893005e-01 2.9943579435348511e-01</leafValues></_>
        <_>
          <internalNodes>
            0 -1 12 -1.1103373952209949e-02</internalNodes>
          <leafValues>
            4.5003750920295715e-01 -3.2225278019905090e-01</leafValues></_>
        <_>
          <internalNodes>
            0 -1 22 1.8227774417027831e-03</internalNodes>
          <leafValues>
            -3.2104265689849854e-01 4.8713085055351257e-01</leafValues></_>
        <_>
          <internalNodes>
            0 -1 3 7.7014334499835968e-02</internalNodes>
          <leafValues>
            2.3210248351097107e-01 -7.4068975448608398e-01</leafValues></_></weakClassifiers></_>
    <!-- stage 2 -->
    <_>
      <maxWeakCount>8</maxWeakCount>
      <stageThreshold>-1.1535557508468628e+00</stageThreshold>
      <weakClassifiers>
        <_>
          <internalNodes>
            0 -1 32 -4.4919210486114025e-03</internalNodes>
          <leafValues>
            5.2095806598663330e-01 -6.3543438911437988e-01</leafValues></_>
        <_>
          <internalNodes>
            0 -1 28 1.6173874959349632e-02</internalNodes>
          <leafValues>
            -2.9262211918830872e-01 7.3375427722930908e-01</leafValues></_>
        <_>
          <internalNodes>
            0 -1 8 -2.0823585509788245e-04</internalNodes>
          <leafValues>
            -7.2490602731704712e-01 2.5112062692642212e-01</leafValues></_>
        <_>
          <internalNodes>
            0 -1 11 -2.3660440929234028e-03</internalNodes>
          <leafValues>
            4.1271919012069702e-01 -3.9336305856704712e-01</leafValues></_>
        <_>
          <internalNodes>
            0 -1 26 7.6274713501334190e-03</internalNodes>
          <leafValues>
            -1.6412308812141418e-01 7.8927695751190186e-01</leafValues></_>
        <_>
          <internalNodes>
            0 -1 30 1.4159709680825472e-03</internalNodes>
          <leafValues>
            -4.7336795926094055e-01 3.6100357770919800e-01</leafValues></_>
        <_>
          <internalNodes>
            0 -1 16 -2.2046850062906742e-03</internalNodes>
          <leafValues>
            -8.1979691982269287e-01 1.9955959916114807e-01</leafValues></_>
        <_>
          <internalNodes>
            0 -1 6 4.1011897847056389e-03</internalNodes>
          <leafValues>
            -3.0975237488746643e-01 5.7059216499328613e-01</leafValues></_></weakClassifiers></_>
    <!-- stage 3 -->
    <_>
      <maxWeakCount>9</maxWeakCount>
      <stageThreshold>-1.3025655746459961e+00</stageThreshold>
      <weakClassifiers>
        <_>
          <internalNodes>
            0 -1 4 2.0766872912645340e-02</internalNodes>
          <leafValues>
            -6.0642570257186890e-01 1.</leafValues></_>
        <_>
          <internalNodes>
            0 -1 19 1.5354625880718231e-02</internalNodes>
          <leafValues>
            -3.4687152504920959e-01 8.1655323505401611e-01</leafValues></_>
        <_>
          <internalNodes>
            0 -1 29 2.0581036806106567e-03</internalNodes>
          <leafValues>
            -2.3767381906509399e-01 6.5875697135925293e-01</leafValues></_>
        <_>
          <internalNodes>
            0 -1 7 1.6751922667026520e-03</internalNodes>
          <leafValues>
            -3.0608686804771423e-01 6.0595917701721191e-01</leafValues></_>
        <_>
          <internalNodes>
            0 -1 23 3.3333092927932739e-02</internalNodes>
          <leafValues>
            -2.0321439206600189e-01 7.9256236553192139e-01</leafValues></_>
        <_>
          <internalNodes>
            0 -1 34 -5.4169986397027969e-03</internalNodes>
          <leafValues>
            8.2393503189086914e-01 -2.1228171885013580e-01</leafValues></_>
        <_>
          <internalNodes>
            0 -1 10 9.5782652497291565e-03</internalNodes>
          <leafValues>
            -2.4764379858970642e-01 6.3366162776947021e-01</leafValues></_>
        <_>
          <internalNodes>
            0 -1 31 -2.5444902479648590e-02</internalNodes>
          <leafValues>
            9.0251398086547852e-01 -1.7921558022499084e-01</leafValues></_>
        <_>
          <internalNodes>
            0 -1 9 2.7186045190319419e-04</internalNodes>
          <leafValues>
            3.4098500013351440e-01 -5.6957787275314331e-01</leafValues></_></weakClassifiers></_>
    <!-- stage 4 -->
    <_>
      <maxWeakCount>6</maxWeakCount>
      <stageThreshold>-1.1671291589736938e+00</stageThreshold>
      <weakClassifiers>
        <_>
          <internalNodes>
            0 -1 40 -9.5895994454622269e-03</internalNodes>
          <leafValues>
            1. -6.5700083971023560e-01</leafValues></_>
        <_>
          <internalNodes>
            0 -1 1 5.2564404904842377e-03</internalNodes>
          <leafValues>
            7.0802259445190430e-01 -4.8347029089927673e-01</leafValues></_>
        <_>
          <internalNodes>
            0 -1 27 -4.4704087078571320e-02</internalNodes>
          <leafValues>
            -8.8552063703536987e-01 3.8347491621971130e-01</leafValues></_>
        <_>
          <internalNodes>
            0 -1 36 1.6633071936666965e-05</internalNodes>
          <leafValues>
            -3.9503747224807739e-01 8.5418897867202759e-01</leafValues></_>
        <_>
          <internalNodes>
            0 -1 20 1.4776871466892771e-05</internalNodes>
          <leafValues>
            -4.5994439721107483e-01 5.7647800445556641e-01</leafValues></_>
        <_>
          <internalNodes>
            0 -1 41 -1.3069900160189718e-04</internalNodes>
          <leafValues>
            5.7764196395874023e-01 -5.1407074928283691e-01</leafValues></_></weakClassifiers></_>
    <!-- stage 5 -->
    <_>
      <maxWeakCount>3</maxWeakCount>
      <stageThreshold>-6.6184639930725098e-01</stageThreshold>
      <weakClassifiers>
        <_>
          <internalNodes>
            0 -1 0 7.5845317915081978e-03</internalNodes>
          <leafValues>
            1. -8.8857412338256836e-01</leafValues></_>
        <_>
          <internalNodes>
            0 -1 42 1.4103239664109424e-05</internalNodes>
          <leafValues>
            1. -7.7327227592468262e-01</leafValues></_>
        <_>
          <internalNodes>
            0 -1 37 -3.2721212483011186e-04</internalNodes>
          <leafValues>
            -6.6637736558914185e-01 1.</leafValues></_></weakClassifiers></_></stages>
  <features>
    <_>
      <rects>
        <_>
          0 3 18 12 -1.</_>
        <_>
          0 3 9 6 2.</_>
        <_>
          9 9 9 6 2.</_></rects>
      <tilted>0</tilted></_>
    <_>
      <rects>
        <_>
          0 5 15 16 -1.</_>
        <_>
          0 13 15 8 2.</_></rects>
      <tilted>0</tilted></_>
    <_>
      <rects>
        <_>
          0 13 33 16 -1.</_>
        <_>
          11 13 11 16 3.</_></rects>
      <tilted>0</tilted></_>
    <_>
      <rects>
        <_>
          0 27 38 15 -1.</_>
        <_>
          19 27 19 15 2.</_></rects>
      <tilted>0</tilted></_>
    <_>
      <rects>
        <_>
          0 30 28 10 -1.</_>
        <_>
          0 35 28 5 2.</_></rects>
      <tilted>0</tilted></_>
    <_>
      <rects>
        <_>
          0 42 13 4 -1.</_>
        <_>
          0 44 13 2 2.</_></rects>
      <tilted>0</tilted></_>
    <_>
      <rects>
        <_>
          1 1 1 24 -1.</_>
        <_>
          1 13 1 12 2.</_></rects>
      <tilted>0</tilted></_>
    <_>
      <rects>
        <_>
          3 5 22 4 -1.</_>
        <_>
          3 5 11 2 2.</_>
        <_>
          14 7 11 2 2.</_></rects>
      <tilted>0</tilted></_>
    <_>
      <rects>
        <_>
          3 39 4 4 -1.</_>
        <_>
          5 39 2 4 2.</_></rects>
      <tilted>0</tilted></_>
    <_>
      <rects>
        <_>
          5 3 2 6 -1.</_>
        <_>
          5 3 1 3 2.</_>
        <_>
          6 6 1 3 2.</_></rects>
      <tilted>0</tilted></_>
    <_>
      <rects>
        <_>
          5 9 8 24 -1.</_>
        <_>
          5 17 8 8 3.</_></rects>
      <tilted>0</tilted></_>
    <_>
      <rects>
        <_>
          5 11 12 17 -1.</_>
        <_>
          9 11 4 17 3.</_></rects>
      <tilted>0</tilted></_>
    <_>
      <rects>
        <_>
          6 11 24 29 -1.</_>
        <_>
          14 11 8 29 3.</_></rects>
      <tilted>0</tilted></_>
    <_>
      <rects>
        <_>
          6 26 26 16 -1.</_>
        <_>
          6 34 26 8 2.</_></rects>
      <tilted>0</tilted></_>
    <_>
      <rects>
        <_>
          6 42 10 2 -1.</_>
        <_>
          11 42 5 2 2.</_></rects>
      <tilted>0</tilted></_>
    <_>
      <rects>
        <_>
          7 6 10 5 -1.</_>
        <_>
          12 6 5 5 2.</_></rects>
      <tilted>0</tilted></_>
    <_>
      <rects>
        <_>
          7 39 10 5 -1.</_>
        <_>
          12 39 5 5 2.</_></rects>
      <tilted>0</tilted></_>
    <_>
      <rects>
        <_>
          8 5 18 22 -1.</_>
        <_>
          17 5 9 22 2.</_></rects>
      <tilted>0</tilted></_>
    <_>
      <rects>
        <_>
          8 7 18 20 -1.</_>
        <_>
          17 7 9 20 2.</_></rects>
      <tilted>0</tilted></_>
    <_>
      <rects>
        <_>
          8 8 1 38 -1.</_>
        <_>
          8 27 1 19 2.</_></rects>
      <tilted>0</tilted></_>
    <_>
      <rects>
        <_>
          8 37 16 9 -1.</_>
        <_>
          8 40 16 3 3.</_></rects>
      <tilted>0</tilted></_>
    <_>
      <rects>
        <_>
          10 21 15 3 -1.</_>
        <_>
          15 21 5 3 3.</_></rects>
      <tilted>0</tilted></_>
    <_>
      <rects>
        <_>
          11 11 15 3 -1.</_>
        <_>
          16 11 5 3 3.</_></rects>
      <tilted>0</tilted></_>
    <_>
      <rects>
        <_>
          14 3 15 21 -1.</_>
        <_>
          19 3 5 21 3.</_></rects>
      <tilted>0</tilted></_>
    <_>
      <rects>
        <_>
          14 14 12 6 -1.</_>
        <_>
          14 14 6 3 2.</_>
        <_>
          20 17 6 3 2.</_></rects>
      <tilted>0</tilted></_>
    <_>
      <rects>
        <_>
          15 4 15 9 -1.</_>
        <_>
          20 4 5 9 3.</_></rects>
      <tilted>0</tilted></_>
    <_>
      <rects>
        <_>
          15 7 10 12 -1.</_>
        <_>
          15 7 5 6 2.</_>
        <_>
          20 13 5 6 2.</_></rects>
      <tilted>0</tilted></_>
    <_>
      <rects>
        <_>
          16 5 22 20 -1.</_>
        <_>
          16 15 22 10 2.</_></rects>
      <tilted>0</tilted></_>
    <_>
      <rects>
        <_>
          16 8 12 14 -1.</_>
        <_>
          20 8 4 14 3.</_></rects>
      <tilted>0</tilted></_>
    <_>
      <rects>
        <_>
          16 14 3 15 -1.</_>
        <_>
          16 19 3 5 3.</_></rects>
      <tilted>0</tilted></_>
    <_>
      <rects>
        <_>
          16 31 21 2 -1.</_>
        <_>
          23 31 7 2 3.</_></rects>
      <tilted>0</tilted></_>
    <_>
      <rects>
        <_>
          17 3 17 15 -1.</_>
        <_>
          17 8 17 5 3.</_></rects>
      <tilted>0</tilted></_>
    <_>
      <rects>
        <_>
          17 5 9 3 -1.</_>
        <_>
          20 5 3 3 3.</_></rects>
      <tilted>0</tilted></_>
    <_>
      <rects>
        <_>
          20 3 18 22 -1.</_>
        <_>
          26 3 6 22 3.</_></rects>
      <tilted>0</tilted></_>
    <_>
      <rects>
        <_>
          20 16 6 18 -1.</_>
        <_>
          20 16 3 9 2.</_>
        <_>
          23 25 3 9 2.</_></rects>
      <tilted>0</tilted></_>
    <_>
      <rects>
        <_>
          21 23 11 15 -1.</_>
        <_>
          21 28 11 5 3.</_></rects>
      <tilted>0</tilted></_>
    <_>
      <rects>
        <_>
          22 27 10 4 -1.</_>
        <_>
          22 29 10 2 2.</_></rects>
      <tilted>0</tilted></_>
    <_>
      <rects>
        <_>
          24 28 9 8 -1.</_>
        <_>
          27 28 3 8 3.</_></rects>
      <tilted>0</tilted></_>
    <_>
      <rects>
        <_>
          29 18 8 2 -1.</_>
        <_>
          33 18 4 2 2.</_></rects>
      <tilted>0</tilted></_>
    <_>
      <rects>
        <_>
          29 34 2 6 -1.</_>
        <_>
          29 37 2 3 2.</_></rects>
      <tilted>0</tilted></_>
    <_>
      <rects>
        <_>
          30 14 8 12 -1.</_>
        <_>
          34 14 4 12 2.</_></rects>
      <tilted>0</tilted></_>
    <_>
      <rects>
        <_>
          36 6 2 37 -1.</_>
        <_>
          37 6 1 37 2.</_></rects>
      <tilted>0</tilted></_>
    <_>
      <rects>
        <_>
          36 9 1 2 -1.</_>
        <_>
          36 10 1 1 2.</_></rects>
      <tilted>0</tilted></_></features></cascade>
</opencv_storage>
