<?xml version="1.0"?>
<opencv_storage>
<stage0>
  <maxWeakCount>8</maxWeakCount>
  <stageThreshold>-1.4077589511871338e+00</stageThreshold>
  <weakClassifiers>
    <_>
      <internalNodes>
        0 -1 1152238 5.1488019526004791e-02</internalNodes>
      <leafValues>
        -6.9719624519348145e-01 3.2103320956230164e-01</leafValues></_>
    <_>
      <internalNodes>
        0 -1 570133 4.2392820119857788e-02</internalNodes>
      <leafValues>
        -5.3784108161926270e-01 4.2112690210342407e-01</leafValues></_>
    <_>
      <internalNodes>
        0 -1 715442 3.5268552601337433e-03</internalNodes>
      <leafValues>
        -3.5994371771812439e-01 4.5419389009475708e-01</leafValues></_>
    <_>
      <internalNodes>
        0 -1 38354 1.8187232315540314e-02</internalNodes>
      <leafValues>
        4.0476813912391663e-01 -4.6944731473922729e-01</leafValues></_>
    <_>
      <internalNodes>
        0 -1 76321 5.4172496311366558e-04</internalNodes>
      <leafValues>
        2.7097779512405396e-01 -6.0049688816070557e-01</leafValues></_>
    <_>
      <internalNodes>
        0 -1 483156 2.8167162090539932e-03</internalNodes>
      <leafValues>
        -4.4337683916091919e-01 3.0612665414810181e-01</leafValues></_>
    <_>
      <internalNodes>
        0 -1 509985 2.7507874183356762e-03</internalNodes>
      <leafValues>
        -3.3648267388343811e-01 4.0928876399993896e-01</leafValues></_>
    <_>
      <internalNodes>
        0 -1 914058 -1.3585316482931376e-03</internalNodes>
      <leafValues>
        4.1604760289192200e-01 -3.1898880004882813e-01</leafValues></_></weakClassifiers></stage0>
</opencv_storage>
